<?xml version="1.0" encoding="UTF-8" standalone="yes"?>
<PMML xmlns="http://www.dmg.org/PMML-4_3" version="4.3">
	<Header>
		<Application name="JPMML-SkLearn" version="1.4.0"/>
		<Timestamp>2017-12-01T08:41:24Z</Timestamp>
	</Header>
	<MiningBuildTask>
		<Extension>PMMLPipeline(steps=[('pca', PCA(copy=True, iterated_power='auto', n_components=3, random_state=None,
  svd_solver='auto', tol=0.0, whiten=False)),
       ('selector', SelectKBest(k=2, score_func=&lt;function f_classif at 0x11d662158&gt;)),
       ('classifier', LogisticRegression(C=1.0, class_weight=None, dual=False, fit_intercept=True,
          intercept_scaling=1, max_iter=100, multi_class='ovr', n_jobs=1,
          penalty='l2', random_state=None, solver='liblinear', tol=0.0001,
          verbose=0, warm_start=False))])</Extension>
	</MiningBuildTask>
	<DataDictionary>
		<DataField name="y" optype="categorical" dataType="integer">
			<Value value="1"/>
			<Value value="2"/>
			<Value value="3"/>
			<Value value="4"/>
			<Value value="5"/>
			<Value value="6"/>
			<Value value="7"/>
			<Value value="8"/>
			<Value value="9"/>
			<Value value="10"/>
			<Value value="11"/>
			<Value value="12"/>
			<Value value="13"/>
			<Value value="14"/>
			<Value value="15"/>
			<Value value="16"/>
			<Value value="17"/>
		</DataField>
		<DataField name="x1" optype="continuous" dataType="double"/>
		<DataField name="x2" optype="continuous" dataType="double"/>
		<DataField name="x3" optype="continuous" dataType="double"/>
		<DataField name="x4" optype="continuous" dataType="double"/>
		<DataField name="x5" optype="continuous" dataType="double"/>
		<DataField name="x6" optype="continuous" dataType="double"/>
		<DataField name="x7" optype="continuous" dataType="double"/>
		<DataField name="x8" optype="continuous" dataType="double"/>
		<DataField name="x9" optype="continuous" dataType="double"/>
		<DataField name="x10" optype="continuous" dataType="double"/>
		<DataField name="x11" optype="continuous" dataType="double"/>
		<DataField name="x12" optype="continuous" dataType="double"/>
		<DataField name="x13" optype="continuous" dataType="double"/>
		<DataField name="x14" optype="continuous" dataType="double"/>
		<DataField name="x15" optype="continuous" dataType="double"/>
		<DataField name="x16" optype="continuous" dataType="double"/>
		<DataField name="x17" optype="continuous" dataType="double"/>
		<DataField name="x18" optype="continuous" dataType="double"/>
		<DataField name="x19" optype="continuous" dataType="double"/>
		<DataField name="x20" optype="continuous" dataType="double"/>
		<DataField name="x21" optype="continuous" dataType="double"/>
		<DataField name="x22" optype="continuous" dataType="double"/>
		<DataField name="x23" optype="continuous" dataType="double"/>
		<DataField name="x24" optype="continuous" dataType="double"/>
		<DataField name="x25" optype="continuous" dataType="double"/>
		<DataField name="x26" optype="continuous" dataType="double"/>
		<DataField name="x27" optype="continuous" dataType="double"/>
		<DataField name="x28" optype="continuous" dataType="double"/>
		<DataField name="x29" optype="continuous" dataType="double"/>
		<DataField name="x30" optype="continuous" dataType="double"/>
		<DataField name="x31" optype="continuous" dataType="double"/>
		<DataField name="x32" optype="continuous" dataType="double"/>
		<DataField name="x33" optype="continuous" dataType="double"/>
		<DataField name="x34" optype="continuous" dataType="double"/>
		<DataField name="x35" optype="continuous" dataType="double"/>
		<DataField name="x36" optype="continuous" dataType="double"/>
		<DataField name="x37" optype="continuous" dataType="double"/>
		<DataField name="x38" optype="continuous" dataType="double"/>
		<DataField name="x39" optype="continuous" dataType="double"/>
		<DataField name="x40" optype="continuous" dataType="double"/>
		<DataField name="x41" optype="continuous" dataType="double"/>
		<DataField name="x42" optype="continuous" dataType="double"/>
		<DataField name="x43" optype="continuous" dataType="double"/>
		<DataField name="x44" optype="continuous" dataType="double"/>
		<DataField name="x45" optype="continuous" dataType="double"/>
		<DataField name="x46" optype="continuous" dataType="double"/>
		<DataField name="x47" optype="continuous" dataType="double"/>
		<DataField name="x48" optype="continuous" dataType="double"/>
		<DataField name="x49" optype="continuous" dataType="double"/>
		<DataField name="x50" optype="continuous" dataType="double"/>
		<DataField name="x51" optype="continuous" dataType="double"/>
		<DataField name="x52" optype="continuous" dataType="double"/>
		<DataField name="x53" optype="continuous" dataType="double"/>
		<DataField name="x54" optype="continuous" dataType="double"/>
		<DataField name="x55" optype="continuous" dataType="double"/>
		<DataField name="x56" optype="continuous" dataType="double"/>
		<DataField name="x57" optype="continuous" dataType="double"/>
		<DataField name="x58" optype="continuous" dataType="double"/>
		<DataField name="x59" optype="continuous" dataType="double"/>
		<DataField name="x60" optype="continuous" dataType="double"/>
		<DataField name="x61" optype="continuous" dataType="double"/>
		<DataField name="x62" optype="continuous" dataType="double"/>
		<DataField name="x63" optype="continuous" dataType="double"/>
		<DataField name="x64" optype="continuous" dataType="double"/>
		<DataField name="x65" optype="continuous" dataType="double"/>
		<DataField name="x66" optype="continuous" dataType="double"/>
		<DataField name="x67" optype="continuous" dataType="double"/>
		<DataField name="x68" optype="continuous" dataType="double"/>
		<DataField name="x69" optype="continuous" dataType="double"/>
		<DataField name="x70" optype="continuous" dataType="double"/>
		<DataField name="x71" optype="continuous" dataType="double"/>
		<DataField name="x72" optype="continuous" dataType="double"/>
		<DataField name="x73" optype="continuous" dataType="double"/>
		<DataField name="x74" optype="continuous" dataType="double"/>
		<DataField name="x75" optype="continuous" dataType="double"/>
		<DataField name="x76" optype="continuous" dataType="double"/>
		<DataField name="x77" optype="continuous" dataType="double"/>
		<DataField name="x78" optype="continuous" dataType="double"/>
		<DataField name="x79" optype="continuous" dataType="double"/>
		<DataField name="x80" optype="continuous" dataType="double"/>
		<DataField name="x81" optype="continuous" dataType="double"/>
		<DataField name="x82" optype="continuous" dataType="double"/>
		<DataField name="x83" optype="continuous" dataType="double"/>
		<DataField name="x84" optype="continuous" dataType="double"/>
		<DataField name="x85" optype="continuous" dataType="double"/>
		<DataField name="x86" optype="continuous" dataType="double"/>
		<DataField name="x87" optype="continuous" dataType="double"/>
		<DataField name="x88" optype="continuous" dataType="double"/>
		<DataField name="x89" optype="continuous" dataType="double"/>
		<DataField name="x90" optype="continuous" dataType="double"/>
		<DataField name="x91" optype="continuous" dataType="double"/>
		<DataField name="x92" optype="continuous" dataType="double"/>
		<DataField name="x93" optype="continuous" dataType="double"/>
		<DataField name="x94" optype="continuous" dataType="double"/>
		<DataField name="x95" optype="continuous" dataType="double"/>
		<DataField name="x96" optype="continuous" dataType="double"/>
		<DataField name="x97" optype="continuous" dataType="double"/>
		<DataField name="x98" optype="continuous" dataType="double"/>
		<DataField name="x99" optype="continuous" dataType="double"/>
		<DataField name="x100" optype="continuous" dataType="double"/>
		<DataField name="x101" optype="continuous" dataType="double"/>
		<DataField name="x102" optype="continuous" dataType="double"/>
		<DataField name="x103" optype="continuous" dataType="double"/>
		<DataField name="x104" optype="continuous" dataType="double"/>
		<DataField name="x105" optype="continuous" dataType="double"/>
		<DataField name="x106" optype="continuous" dataType="double"/>
		<DataField name="x107" optype="continuous" dataType="double"/>
		<DataField name="x108" optype="continuous" dataType="double"/>
		<DataField name="x109" optype="continuous" dataType="double"/>
		<DataField name="x110" optype="continuous" dataType="double"/>
		<DataField name="x111" optype="continuous" dataType="double"/>
		<DataField name="x112" optype="continuous" dataType="double"/>
		<DataField name="x113" optype="continuous" dataType="double"/>
		<DataField name="x114" optype="continuous" dataType="double"/>
		<DataField name="x115" optype="continuous" dataType="double"/>
		<DataField name="x116" optype="continuous" dataType="double"/>
		<DataField name="x117" optype="continuous" dataType="double"/>
		<DataField name="x118" optype="continuous" dataType="double"/>
		<DataField name="x119" optype="continuous" dataType="double"/>
		<DataField name="x120" optype="continuous" dataType="double"/>
		<DataField name="x121" optype="continuous" dataType="double"/>
		<DataField name="x122" optype="continuous" dataType="double"/>
		<DataField name="x123" optype="continuous" dataType="double"/>
		<DataField name="x124" optype="continuous" dataType="double"/>
		<DataField name="x125" optype="continuous" dataType="double"/>
		<DataField name="x126" optype="continuous" dataType="double"/>
		<DataField name="x127" optype="continuous" dataType="double"/>
	</DataDictionary>
	<TransformationDictionary>
		<DerivedField name="pca@1[1]" optype="continuous" dataType="double">
			<Apply function="sum">
				<Apply function="*">
					<Apply function="-">
						<FieldRef field="x1"/>
						<Constant dataType="double">8.414180158335362E-17</Constant>
					</Apply>
					<Constant dataType="double">0.025478164325989233</Constant>
				</Apply>
				<Apply function="*">
					<Apply function="-">
						<FieldRef field="x2"/>
						<Constant dataType="double">-5.335038976659731E-16</Constant>
					</Apply>
					<Constant dataType="double">-0.018189945255002813</Constant>
				</Apply>
				<Apply function="*">
					<Apply function="-">
						<FieldRef field="x3"/>
						<Constant dataType="double">-1.1097069549087787E-15</Constant>
					</Apply>
					<Constant dataType="double">0.020947017991240335</Constant>
				</Apply>
				<Apply function="*">
					<Apply function="-">
						<FieldRef field="x4"/>
						<Constant dataType="double">3.9921358233894066E-16</Constant>
					</Apply>
					<Constant dataType="double">0.028289640130474056</Constant>
				</Apply>
				<Apply function="*">
					<Apply function="-">
						<FieldRef field="x5"/>
						<Constant dataType="double">-8.062467427716944E-17</Constant>
					</Apply>
					<Constant dataType="double">0.007243052342875443</Constant>
				</Apply>
				<Apply function="*">
					<Apply function="-">
						<FieldRef field="x6"/>
						<Constant dataType="double">2.952816290231823E-17</Constant>
					</Apply>
					<Constant dataType="double">-0.058479188331357075</Constant>
				</Apply>
				<Apply function="*">
					<Apply function="-">
						<FieldRef field="x7"/>
						<Constant dataType="double">1.507237701216052E-14</Constant>
					</Apply>
					<Constant dataType="double">0.013109476262979728</Constant>
				</Apply>
				<Apply function="*">
					<Apply function="-">
						<FieldRef field="x8"/>
						<Constant dataType="double">-1.5589792997363758E-16</Constant>
					</Apply>
					<Constant dataType="double">0.049463695587757324</Constant>
				</Apply>
				<Apply function="*">
					<Apply function="-">
						<FieldRef field="x9"/>
						<Constant dataType="double">6.489015738108231E-17</Constant>
					</Apply>
					<Constant dataType="double">-0.139411194984278</Constant>
				</Apply>
				<Apply function="*">
					<Apply function="-">
						<FieldRef field="x10"/>
						<Constant dataType="double">-3.5384432292519643E-16</Constant>
					</Apply>
					<Constant dataType="double">-0.012803614134407146</Constant>
				</Apply>
				<Apply function="*">
					<Apply function="-">
						<FieldRef field="x11"/>
						<Constant dataType="double">-3.2382252812025583E-16</Constant>
					</Apply>
					<Constant dataType="double">0.1117599746459832</Constant>
				</Apply>
				<Apply function="*">
					<Apply function="-">
						<FieldRef field="x12"/>
						<Constant dataType="double">-1.5540429807101525E-16</Constant>
					</Apply>
					<Constant dataType="double">-0.03213104581725197</Constant>
				</Apply>
				<Apply function="*">
					<FieldRef field="x13"/>
					<Constant dataType="double">-0.0</Constant>
				</Apply>
				<Apply function="*">
					<Apply function="-">
						<FieldRef field="x14"/>
						<Constant dataType="double">7.560645723073822E-16</Constant>
					</Apply>
					<Constant dataType="double">0.1311996453128017</Constant>
				</Apply>
				<Apply function="*">
					<Apply function="-">
						<FieldRef field="x15"/>
						<Constant dataType="double">5.833831576445851E-17</Constant>
					</Apply>
					<Constant dataType="double">0.08789274638443917</Constant>
				</Apply>
				<Apply function="*">
					<FieldRef field="x16"/>
					<Constant dataType="double">-0.0</Constant>
				</Apply>
				<Apply function="*">
					<Apply function="-">
						<FieldRef field="x17"/>
						<Constant dataType="double">-1.489870833369248E-16</Constant>
					</Apply>
					<Constant dataType="double">-0.12867743875535326</Constant>
				</Apply>
				<Apply function="*">
					<Apply function="-">
						<FieldRef field="x18"/>
						<Constant dataType="double">4.9569618148785285E-16</Constant>
					</Apply>
					<Constant dataType="double">0.16716811337179832</Constant>
				</Apply>
				<Apply function="*">
					<Apply function="-">
						<FieldRef field="x19"/>
						<Constant dataType="double">-2.391197811930132E-16</Constant>
					</Apply>
					<Constant dataType="double">-0.02598310859495694</Constant>
				</Apply>
				<Apply function="*">
					<Apply function="-">
						<FieldRef field="x20"/>
						<Constant dataType="double">-9.671258673990665E-17</Constant>
					</Apply>
					<Constant dataType="double">0.026328444898831037</Constant>
				</Apply>
				<Apply function="*">
					<Apply function="-">
						<FieldRef field="x21"/>
						<Constant dataType="double">-3.004423261869613E-16</Constant>
					</Apply>
					<Constant dataType="double">0.04371287555385949</Constant>
				</Apply>
				<Apply function="*">
					<Apply function="-">
						<FieldRef field="x22"/>
						<Constant dataType="double">-7.207025778286182E-16</Constant>
					</Apply>
					<Constant dataType="double">-0.034840964069674595</Constant>
				</Apply>
				<Apply function="*">
					<Apply function="-">
						<FieldRef field="x23"/>
						<Constant dataType="double">-4.552071465659431E-17</Constant>
					</Apply>
					<Constant dataType="double">-0.12594731191287348</Constant>
				</Apply>
				<Apply function="*">
					<Apply function="-">
						<FieldRef field="x24"/>
						<Constant dataType="double">-6.634861527519378E-16</Constant>
					</Apply>
					<Constant dataType="double">-0.06828136492270212</Constant>
				</Apply>
				<Apply function="*">
					<Apply function="-">
						<FieldRef field="x25"/>
						<Constant dataType="double">-6.515941114614904E-17</Constant>
					</Apply>
					<Constant dataType="double">-0.05153459273766761</Constant>
				</Apply>
				<Apply function="*">
					<Apply function="-">
						<FieldRef field="x26"/>
						<Constant dataType="double">1.3906956965696686E-16</Constant>
					</Apply>
					<Constant dataType="double">-0.021300200939863796</Constant>
				</Apply>
				<Apply function="*">
					<Apply function="-">
						<FieldRef field="x27"/>
						<Constant dataType="double">1.1811265160927292E-16</Constant>
					</Apply>
					<Constant dataType="double">0.12101863988030984</Constant>
				</Apply>
				<Apply function="*">
					<Apply function="-">
						<FieldRef field="x28"/>
						<Constant dataType="double">-1.8654798356373385E-16</Constant>
					</Apply>
					<Constant dataType="double">0.0033413546675949996</Constant>
				</Apply>
				<Apply function="*">
					<Apply function="-">
						<FieldRef field="x29"/>
						<Constant dataType="double">-3.996174629865408E-16</Constant>
					</Apply>
					<Constant dataType="double">-0.04594997530310047</Constant>
				</Apply>
				<Apply function="*">
					<Apply function="-">
						<FieldRef field="x30"/>
						<Constant dataType="double">-1.02316430725358E-17</Constant>
					</Apply>
					<Constant dataType="double">0.04553799726179687</Constant>
				</Apply>
				<Apply function="*">
					<Apply function="-">
						<FieldRef field="x31"/>
						<Constant dataType="double">-1.915291782174684E-16</Constant>
					</Apply>
					<Constant dataType="double">0.023391031561455826</Constant>
				</Apply>
				<Apply function="*">
					<Apply function="-">
						<FieldRef field="x32"/>
						<Constant dataType="double">-2.4748908572383743E-17</Constant>
					</Apply>
					<Constant dataType="double">-0.09343594402328965</Constant>
				</Apply>
				<Apply function="*">
					<Apply function="-">
						<FieldRef field="x33"/>
						<Constant dataType="double">8.874604096599473E-16</Constant>
					</Apply>
					<Constant dataType="double">0.07933150305729106</Constant>
				</Apply>
				<Apply function="*">
					<Apply function="-">
						<FieldRef field="x34"/>
						<Constant dataType="double">-5.796136049336509E-16</Constant>
					</Apply>
					<Constant dataType="double">0.009823392233524601</Constant>
				</Apply>
				<Apply function="*">
					<Apply function="-">
						<FieldRef field="x35"/>
						<Constant dataType="double">3.278164589687457E-17</Constant>
					</Apply>
					<Constant dataType="double">0.021083926291302638</Constant>
				</Apply>
				<Apply function="*">
					<FieldRef field="x36"/>
					<Constant dataType="double">-0.0</Constant>
				</Apply>
				<Apply function="*">
					<Apply function="-">
						<FieldRef field="x37"/>
						<Constant dataType="double">-4.2979632248777026E-16</Constant>
					</Apply>
					<Constant dataType="double">0.03283894928522199</Constant>
				</Apply>
				<Apply function="*">
					<Apply function="-">
						<FieldRef field="x38"/>
						<Constant dataType="double">2.369881888862349E-16</Constant>
					</Apply>
					<Constant dataType="double">0.07630237226059979</Constant>
				</Apply>
				<Apply function="*">
					<Apply function="-">
						<FieldRef field="x39"/>
						<Constant dataType="double">-2.372125670237905E-16</Constant>
					</Apply>
					<Constant dataType="double">0.0452558693308432</Constant>
				</Apply>
				<Apply function="*">
					<Apply function="-">
						<FieldRef field="x40"/>
						<Constant dataType="double">-4.626677196396671E-17</Constant>
					</Apply>
					<Constant dataType="double">0.04204944826788316</Constant>
				</Apply>
				<Apply function="*">
					<Apply function="-">
						<FieldRef field="x41"/>
						<Constant dataType="double">8.490468725104269E-17</Constant>
					</Apply>
					<Constant dataType="double">-0.006461828904477559</Constant>
				</Apply>
				<Apply function="*">
					<Apply function="-">
						<FieldRef field="x42"/>
						<Constant dataType="double">-7.601931300384054E-17</Constant>
					</Apply>
					<Constant dataType="double">0.027341860457202986</Constant>
				</Apply>
				<Apply function="*">
					<Apply function="-">
						<FieldRef field="x43"/>
						<Constant dataType="double">-6.874048622153657E-16</Constant>
					</Apply>
					<Constant dataType="double">0.011893120886433581</Constant>
				</Apply>
				<Apply function="*">
					<Apply function="-">
						<FieldRef field="x44"/>
						<Constant dataType="double">3.0192322189482836E-16</Constant>
					</Apply>
					<Constant dataType="double">-0.132266680873055</Constant>
				</Apply>
				<Apply function="*">
					<Apply function="-">
						<FieldRef field="x45"/>
						<Constant dataType="double">1.4912171021945818E-16</Constant>
					</Apply>
					<Constant dataType="double">0.1548601469970589</Constant>
				</Apply>
				<Apply function="*">
					<Apply function="-">
						<FieldRef field="x46"/>
						<Constant dataType="double">-6.538378928370466E-17</Constant>
					</Apply>
					<Constant dataType="double">0.18413943599558188</Constant>
				</Apply>
				<Apply function="*">
					<Apply function="-">
						<FieldRef field="x47"/>
						<Constant dataType="double">7.609111400785834E-16</Constant>
					</Apply>
					<Constant dataType="double">-0.004338036112153572</Constant>
				</Apply>
				<Apply function="*">
					<Apply function="-">
						<FieldRef field="x48"/>
						<Constant dataType="double">-1.506026059273252E-16</Constant>
					</Apply>
					<Constant dataType="double">0.10708138525339335</Constant>
				</Apply>
				<Apply function="*">
					<Apply function="-">
						<FieldRef field="x49"/>
						<Constant dataType="double">8.260481134109769E-17</Constant>
					</Apply>
					<Constant dataType="double">-0.026392634195888543</Constant>
				</Apply>
				<Apply function="*">
					<Apply function="-">
						<FieldRef field="x50"/>
						<Constant dataType="double">1.1434309889833867E-16</Constant>
					</Apply>
					<Constant dataType="double">0.19540473724089538</Constant>
				</Apply>
				<Apply function="*">
					<Apply function="-">
						<FieldRef field="x51"/>
						<Constant dataType="double">1.5257713353781455E-17</Constant>
					</Apply>
					<Constant dataType="double">-0.03176228484528875</Constant>
				</Apply>
				<Apply function="*">
					<Apply function="-">
						<FieldRef field="x52"/>
						<Constant dataType="double">1.0394990356676284E-15</Constant>
					</Apply>
					<Constant dataType="double">0.13264559412537452</Constant>
				</Apply>
				<Apply function="*">
					<Apply function="-">
						<FieldRef field="x53"/>
						<Constant dataType="double">-5.026967793795879E-16</Constant>
					</Apply>
					<Constant dataType="double">-0.06579833247029723</Constant>
				</Apply>
				<Apply function="*">
					<Apply function="-">
						<FieldRef field="x54"/>
						<Constant dataType="double">-2.0066136841598171E-16</Constant>
					</Apply>
					<Constant dataType="double">-0.05270712590618478</Constant>
				</Apply>
				<Apply function="*">
					<Apply function="-">
						<FieldRef field="x55"/>
						<Constant dataType="double">7.417043715038233E-16</Constant>
					</Apply>
					<Constant dataType="double">0.10594197762750009</Constant>
				</Apply>
				<Apply function="*">
					<Apply function="-">
						<FieldRef field="x56"/>
						<Constant dataType="double">3.210402392145663E-16</Constant>
					</Apply>
					<Constant dataType="double">-0.11285526958178858</Constant>
				</Apply>
				<Apply function="*">
					<Apply function="-">
						<FieldRef field="x57"/>
						<Constant dataType="double">1.3067782731238707E-16</Constant>
					</Apply>
					<Constant dataType="double">0.15152132211929878</Constant>
				</Apply>
				<Apply function="*">
					<Apply function="-">
						<FieldRef field="x58"/>
						<Constant dataType="double">-9.271304643797791E-17</Constant>
					</Apply>
					<Constant dataType="double">-0.0769288419280247</Constant>
				</Apply>
				<Apply function="*">
					<Apply function="-">
						<FieldRef field="x59"/>
						<Constant dataType="double">4.440443342225515E-16</Constant>
					</Apply>
					<Constant dataType="double">0.1486071407863538</Constant>
				</Apply>
				<Apply function="*">
					<Apply function="-">
						<FieldRef field="x60"/>
						<Constant dataType="double">-1.0359538610942498E-16</Constant>
					</Apply>
					<Constant dataType="double">-0.05798380486229684</Constant>
				</Apply>
				<Apply function="*">
					<Apply function="-">
						<FieldRef field="x61"/>
						<Constant dataType="double">1.117403125026936E-16</Constant>
					</Apply>
					<Constant dataType="double">-0.019589625144372555</Constant>
				</Apply>
				<Apply function="*">
					<Apply function="-">
						<FieldRef field="x62"/>
						<Constant dataType="double">-3.936490045275616E-16</Constant>
					</Apply>
					<Constant dataType="double">-0.11893636334496346</Constant>
				</Apply>
				<Apply function="*">
					<Apply function="-">
						<FieldRef field="x63"/>
						<Constant dataType="double">-2.395236618406133E-16</Constant>
					</Apply>
					<Constant dataType="double">0.09881503044772723</Constant>
				</Apply>
				<Apply function="*">
					<Apply function="-">
						<FieldRef field="x64"/>
						<Constant dataType="double">2.7979953753184525E-16</Constant>
					</Apply>
					<Constant dataType="double">0.12024933386918878</Constant>
				</Apply>
				<Apply function="*">
					<Apply function="-">
						<FieldRef field="x65"/>
						<Constant dataType="double">2.4905973268672673E-16</Constant>
					</Apply>
					<Constant dataType="double">0.0245306833911355</Constant>
				</Apply>
				<Apply function="*">
					<Apply function="-">
						<FieldRef field="x66"/>
						<Constant dataType="double">8.10453832850862E-17</Constant>
					</Apply>
					<Constant dataType="double">-0.11362079890671353</Constant>
				</Apply>
				<Apply function="*">
					<Apply function="-">
						<FieldRef field="x67"/>
						<Constant dataType="double">-3.288037227739904E-16</Constant>
					</Apply>
					<Constant dataType="double">-0.07159398121141154</Constant>
				</Apply>
				<Apply function="*">
					<Apply function="-">
						<FieldRef field="x68"/>
						<Constant dataType="double">-2.288376530395274E-16</Constant>
					</Apply>
					<Constant dataType="double">-7.234470976504788E-5</Constant>
				</Apply>
				<Apply function="*">
					<Apply function="-">
						<FieldRef field="x69"/>
						<Constant dataType="double">6.024104237093008E-16</Constant>
					</Apply>
					<Constant dataType="double">0.05277032030613024</Constant>
				</Apply>
				<Apply function="*">
					<Apply function="-">
						<FieldRef field="x70"/>
						<Constant dataType="double">2.205637092171643E-16</Constant>
					</Apply>
					<Constant dataType="double">0.02973571433688193</Constant>
				</Apply>
				<Apply function="*">
					<Apply function="-">
						<FieldRef field="x71"/>
						<Constant dataType="double">1.768099723938204E-16</Constant>
					</Apply>
					<Constant dataType="double">0.019458291790627885</Constant>
				</Apply>
				<Apply function="*">
					<Apply function="-">
						<FieldRef field="x72"/>
						<Constant dataType="double">4.665073905185874E-16</Constant>
					</Apply>
					<Constant dataType="double">0.14382791583407933</Constant>
				</Apply>
				<Apply function="*">
					<Apply function="-">
						<FieldRef field="x73"/>
						<Constant dataType="double">-1.1775364658918393E-16</Constant>
					</Apply>
					<Constant dataType="double">-0.12452047751502471</Constant>
				</Apply>
				<Apply function="*">
					<Apply function="-">
						<FieldRef field="x74"/>
						<Constant dataType="double">-2.19352067274364E-16</Constant>
					</Apply>
					<Constant dataType="double">-0.11907403846039608</Constant>
				</Apply>
				<Apply function="*">
					<Apply function="-">
						<FieldRef field="x75"/>
						<Constant dataType="double">4.6401398846500073E-17</Constant>
					</Apply>
					<Constant dataType="double">-0.04680131548596218</Constant>
				</Apply>
				<Apply function="*">
					<Apply function="-">
						<FieldRef field="x76"/>
						<Constant dataType="double">-2.807419257095788E-16</Constant>
					</Apply>
					<Constant dataType="double">0.0939679271663699</Constant>
				</Apply>
				<Apply function="*">
					<Apply function="-">
						<FieldRef field="x77"/>
						<Constant dataType="double">-5.570411642955565E-16</Constant>
					</Apply>
					<Constant dataType="double">0.11532201424059564</Constant>
				</Apply>
				<Apply function="*">
					<Apply function="-">
						<FieldRef field="x78"/>
						<Constant dataType="double">5.089793672311449E-16</Constant>
					</Apply>
					<Constant dataType="double">0.08080272491223373</Constant>
				</Apply>
				<Apply function="*">
					<Apply function="-">
						<FieldRef field="x79"/>
						<Constant dataType="double">-7.974399008726367E-17</Constant>
					</Apply>
					<Constant dataType="double">-0.07314189900304754</Constant>
				</Apply>
				<Apply function="*">
					<Apply function="-">
						<FieldRef field="x80"/>
						<Constant dataType="double">-3.3432342495785836E-17</Constant>
					</Apply>
					<Constant dataType="double">-0.05457958239341362</Constant>
				</Apply>
				<Apply function="*">
					<Apply function="-">
						<FieldRef field="x81"/>
						<Constant dataType="double">-7.646806927895176E-17</Constant>
					</Apply>
					<Constant dataType="double">-0.028164670919210665</Constant>
				</Apply>
				<Apply function="*">
					<Apply function="-">
						<FieldRef field="x82"/>
						<Constant dataType="double">-1.0386912743724281E-15</Constant>
					</Apply>
					<Constant dataType="double">0.10444807386474521</Constant>
				</Apply>
				<Apply function="*">
					<Apply function="-">
						<FieldRef field="x83"/>
						<Constant dataType="double">6.349901292823753E-17</Constant>
					</Apply>
					<Constant dataType="double">0.11685676696371092</Constant>
				</Apply>
				<Apply function="*">
					<Apply function="-">
						<FieldRef field="x84"/>
						<Constant dataType="double">1.453072818810128E-16</Constant>
					</Apply>
					<Constant dataType="double">0.10618073356847045</Constant>
				</Apply>
				<Apply function="*">
					<Apply function="-">
						<FieldRef field="x85"/>
						<Constant dataType="double">-8.167364207024192E-17</Constant>
					</Apply>
					<Constant dataType="double">-0.02752574307778792</Constant>
				</Apply>
				<Apply function="*">
					<Apply function="-">
						<FieldRef field="x86"/>
						<Constant dataType="double">-3.3916999272905957E-16</Constant>
					</Apply>
					<Constant dataType="double">-0.023173921742533753</Constant>
				</Apply>
				<Apply function="*">
					<Apply function="-">
						<FieldRef field="x87"/>
						<Constant dataType="double">6.946747138721674E-17</Constant>
					</Apply>
					<Constant dataType="double">-0.14098366866665982</Constant>
				</Apply>
				<Apply function="*">
					<Apply function="-">
						<FieldRef field="x88"/>
						<Constant dataType="double">-2.6557396361081957E-16</Constant>
					</Apply>
					<Constant dataType="double">0.046191519828821574</Constant>
				</Apply>
				<Apply function="*">
					<Apply function="-">
						<FieldRef field="x89"/>
						<Constant dataType="double">7.129390942691941E-16</Constant>
					</Apply>
					<Constant dataType="double">0.07730302898975067</Constant>
				</Apply>
				<Apply function="*">
					<Apply function="-">
						<FieldRef field="x90"/>
						<Constant dataType="double">-2.443477917980589E-17</Constant>
					</Apply>
					<Constant dataType="double">0.17085995780669203</Constant>
				</Apply>
				<Apply function="*">
					<Apply function="-">
						<FieldRef field="x91"/>
						<Constant dataType="double">-2.6611247114095304E-16</Constant>
					</Apply>
					<Constant dataType="double">-0.09649628684225683</Constant>
				</Apply>
				<Apply function="*">
					<Apply function="-">
						<FieldRef field="x92"/>
						<Constant dataType="double">-6.931524484451887E-16</Constant>
					</Apply>
					<Constant dataType="double">0.09797347827563871</Constant>
				</Apply>
				<Apply function="*">
					<Apply function="-">
						<FieldRef field="x93"/>
						<Constant dataType="double">-2.4852122515659325E-16</Constant>
					</Apply>
					<Constant dataType="double">0.07303855005172119</Constant>
				</Apply>
				<Apply function="*">
					<FieldRef field="x94"/>
					<Constant dataType="double">-0.0</Constant>
				</Apply>
				<Apply function="*">
					<Apply function="-">
						<FieldRef field="x95"/>
						<Constant dataType="double">-1.645589260832841E-16</Constant>
					</Apply>
					<Constant dataType="double">0.1326171314550488</Constant>
				</Apply>
				<Apply function="*">
					<Apply function="-">
						<FieldRef field="x96"/>
						<Constant dataType="double">2.952816290231823E-16</Constant>
					</Apply>
					<Constant dataType="double">-0.11515413334959734</Constant>
				</Apply>
				<Apply function="*">
					<Apply function="-">
						<FieldRef field="x97"/>
						<Constant dataType="double">-7.386528288330669E-17</Constant>
					</Apply>
					<Constant dataType="double">0.14693071651307152</Constant>
				</Apply>
				<Apply function="*">
					<Apply function="-">
						<FieldRef field="x98"/>
						<Constant dataType="double">-1.0940677987211527E-16</Constant>
					</Apply>
					<Constant dataType="double">0.12600790186939978</Constant>
				</Apply>
				<Apply function="*">
					<Apply function="-">
						<FieldRef field="x99"/>
						<Constant dataType="double">3.969698009633846E-16</Constant>
					</Apply>
					<Constant dataType="double">0.11660283416007974</Constant>
				</Apply>
				<Apply function="*">
					<Apply function="-">
						<FieldRef field="x100"/>
						<Constant dataType="double">2.287759490516996E-16</Constant>
					</Apply>
					<Constant dataType="double">0.023549991230877837</Constant>
				</Apply>
				<Apply function="*">
					<Apply function="-">
						<FieldRef field="x101"/>
						<Constant dataType="double">-1.6954012073701866E-16</Constant>
					</Apply>
					<Constant dataType="double">0.08312270610913254</Constant>
				</Apply>
				<Apply function="*">
					<Apply function="-">
						<FieldRef field="x102"/>
						<Constant dataType="double">1.6110350276492772E-16</Constant>
					</Apply>
					<Constant dataType="double">0.016994893923844023</Constant>
				</Apply>
				<Apply function="*">
					<Apply function="-">
						<FieldRef field="x103"/>
						<Constant dataType="double">-2.1495425577827405E-17</Constant>
					</Apply>
					<Constant dataType="double">0.1808766217943237</Constant>
				</Apply>
				<Apply function="*">
					<Apply function="-">
						<FieldRef field="x104"/>
						<Constant dataType="double">1.7663046988377593E-16</Constant>
					</Apply>
					<Constant dataType="double">-0.12173621109773292</Constant>
				</Apply>
				<Apply function="*">
					<Apply function="-">
						<FieldRef field="x105"/>
						<Constant dataType="double">4.1020811107916557E-16</Constant>
					</Apply>
					<Constant dataType="double">-0.048247887489606685</Constant>
				</Apply>
				<Apply function="*">
					<Apply function="-">
						<FieldRef field="x106"/>
						<Constant dataType="double">-7.183241695705287E-16</Constant>
					</Apply>
					<Constant dataType="double">-0.0942084610644575</Constant>
				</Apply>
				<Apply function="*">
					<Apply function="-">
						<FieldRef field="x107"/>
						<Constant dataType="double">-4.2676721763076954E-17</Constant>
					</Apply>
					<Constant dataType="double">-0.05295225439567054</Constant>
				</Apply>
				<Apply function="*">
					<Apply function="-">
						<FieldRef field="x108"/>
						<Constant dataType="double">2.9887167922407203E-17</Constant>
					</Apply>
					<Constant dataType="double">0.09452323160838545</Constant>
				</Apply>
				<Apply function="*">
					<Apply function="-">
						<FieldRef field="x109"/>
						<Constant dataType="double">-2.605478933295739E-16</Constant>
					</Apply>
					<Constant dataType="double">-0.09065947709197045</Constant>
				</Apply>
				<Apply function="*">
					<Apply function="-">
						<FieldRef field="x110"/>
						<Constant dataType="double">9.807119636280586E-16</Constant>
					</Apply>
					<Constant dataType="double">-0.018152745925453566</Constant>
				</Apply>
				<Apply function="*">
					<FieldRef field="x111"/>
					<Constant dataType="double">-0.0</Constant>
				</Apply>
				<Apply function="*">
					<Apply function="-">
						<FieldRef field="x112"/>
						<Constant dataType="double">-7.180100401779508E-19</Constant>
					</Apply>
					<Constant dataType="double">0.012487761937181536</Constant>
				</Apply>
				<Apply function="*">
					<Apply function="-">
						<FieldRef field="x113"/>
						<Constant dataType="double">4.7478413906767E-17</Constant>
					</Apply>
					<Constant dataType="double">0.1243853272666498</Constant>
				</Apply>
				<Apply function="*">
					<Apply function="-">
						<FieldRef field="x114"/>
						<Constant dataType="double">3.6636462300079943E-16</Constant>
					</Apply>
					<Constant dataType="double">0.10487964418709689</Constant>
				</Apply>
				<Apply function="*">
					<Apply function="-">
						<FieldRef field="x115"/>
						<Constant dataType="double">8.907812060957703E-17</Constant>
					</Apply>
					<Constant dataType="double">-0.056283138131244345</Constant>
				</Apply>
				<Apply function="*">
					<Apply function="-">
						<FieldRef field="x116"/>
						<Constant dataType="double">-3.54427706082841E-16</Constant>
					</Apply>
					<Constant dataType="double">0.11023383613131785</Constant>
				</Apply>
				<Apply function="*">
					<Apply function="-">
						<FieldRef field="x117"/>
						<Constant dataType="double">-1.8264380397026625E-17</Constant>
					</Apply>
					<Constant dataType="double">-0.03992045729867329</Constant>
				</Apply>
				<Apply function="*">
					<Apply function="-">
						<FieldRef field="x118"/>
						<Constant dataType="double">7.575005923877382E-17</Constant>
					</Apply>
					<Constant dataType="double">-0.07114884831456003</Constant>
				</Apply>
				<Apply function="*">
					<Apply function="-">
						<FieldRef field="x119"/>
						<Constant dataType="double">-1.624497715902614E-16</Constant>
					</Apply>
					<Constant dataType="double">0.08723095052176323</Constant>
				</Apply>
				<Apply function="*">
					<Apply function="-">
						<FieldRef field="x120"/>
						<Constant dataType="double">2.5646421122606183E-16</Constant>
					</Apply>
					<Constant dataType="double">-0.010696290022270488</Constant>
				</Apply>
				<Apply function="*">
					<Apply function="-">
						<FieldRef field="x121"/>
						<Constant dataType="double">-2.443477917980589E-17</Constant>
					</Apply>
					<Constant dataType="double">0.17085995780669203</Constant>
				</Apply>
				<Apply function="*">
					<Apply function="-">
						<FieldRef field="x122"/>
						<Constant dataType="double">-7.110991935412381E-16</Constant>
					</Apply>
					<Constant dataType="double">0.13765224167017162</Constant>
				</Apply>
				<Apply function="*">
					<FieldRef field="x123"/>
					<Constant dataType="double">-0.0</Constant>
				</Apply>
				<Apply function="*">
					<Apply function="-">
						<FieldRef field="x124"/>
						<Constant dataType="double">4.196768684840123E-16</Constant>
					</Apply>
					<Constant dataType="double">0.005647426397580165</Constant>
				</Apply>
				<Apply function="*">
					<Apply function="-">
						<FieldRef field="x125"/>
						<Constant dataType="double">-1.5167962098759213E-16</Constant>
					</Apply>
					<Constant dataType="double">0.1088436245941954</Constant>
				</Apply>
				<Apply function="*">
					<Apply function="-">
						<FieldRef field="x126"/>
						<Constant dataType="double">-3.274125783211456E-16</Constant>
					</Apply>
					<Constant dataType="double">0.03028843831053635</Constant>
				</Apply>
				<Apply function="*">
					<Apply function="-">
						<FieldRef field="x127"/>
						<Constant dataType="double">-2.304812228971222E-16</Constant>
					</Apply>
					<Constant dataType="double">0.16841726915340827</Constant>
				</Apply>
			</Apply>
		</DerivedField>
		<DerivedField name="pca@1[2]" optype="continuous" dataType="double">
			<Apply function="sum">
				<Apply function="*">
					<Apply function="-">
						<FieldRef field="x1"/>
						<Constant dataType="double">8.414180158335362E-17</Constant>
					</Apply>
					<Constant dataType="double">-0.0734560097642017</Constant>
				</Apply>
				<Apply function="*">
					<Apply function="-">
						<FieldRef field="x2"/>
						<Constant dataType="double">-5.335038976659731E-16</Constant>
					</Apply>
					<Constant dataType="double">-0.047918289594821535</Constant>
				</Apply>
				<Apply function="*">
					<Apply function="-">
						<FieldRef field="x3"/>
						<Constant dataType="double">-1.1097069549087787E-15</Constant>
					</Apply>
					<Constant dataType="double">-0.13880016483002372</Constant>
				</Apply>
				<Apply function="*">
					<Apply function="-">
						<FieldRef field="x4"/>
						<Constant dataType="double">3.9921358233894066E-16</Constant>
					</Apply>
					<Constant dataType="double">0.08768322718270216</Constant>
				</Apply>
				<Apply function="*">
					<Apply function="-">
						<FieldRef field="x5"/>
						<Constant dataType="double">-8.062467427716944E-17</Constant>
					</Apply>
					<Constant dataType="double">-0.0358941656816876</Constant>
				</Apply>
				<Apply function="*">
					<Apply function="-">
						<FieldRef field="x6"/>
						<Constant dataType="double">2.952816290231823E-17</Constant>
					</Apply>
					<Constant dataType="double">0.06936095263918673</Constant>
				</Apply>
				<Apply function="*">
					<Apply function="-">
						<FieldRef field="x7"/>
						<Constant dataType="double">1.507237701216052E-14</Constant>
					</Apply>
					<Constant dataType="double">0.09283558868153291</Constant>
				</Apply>
				<Apply function="*">
					<Apply function="-">
						<FieldRef field="x8"/>
						<Constant dataType="double">-1.5589792997363758E-16</Constant>
					</Apply>
					<Constant dataType="double">-1.8170067562386187E-4</Constant>
				</Apply>
				<Apply function="*">
					<Apply function="-">
						<FieldRef field="x9"/>
						<Constant dataType="double">6.489015738108231E-17</Constant>
					</Apply>
					<Constant dataType="double">-0.0023250900701886094</Constant>
				</Apply>
				<Apply function="*">
					<Apply function="-">
						<FieldRef field="x10"/>
						<Constant dataType="double">-3.5384432292519643E-16</Constant>
					</Apply>
					<Constant dataType="double">-0.14735736495607255</Constant>
				</Apply>
				<Apply function="*">
					<Apply function="-">
						<FieldRef field="x11"/>
						<Constant dataType="double">-3.2382252812025583E-16</Constant>
					</Apply>
					<Constant dataType="double">0.16067592453245227</Constant>
				</Apply>
				<Apply function="*">
					<Apply function="-">
						<FieldRef field="x12"/>
						<Constant dataType="double">-1.5540429807101525E-16</Constant>
					</Apply>
					<Constant dataType="double">0.09967050401963105</Constant>
				</Apply>
				<Apply function="*">
					<FieldRef field="x13"/>
					<Constant dataType="double">0.0</Constant>
				</Apply>
				<Apply function="*">
					<Apply function="-">
						<FieldRef field="x14"/>
						<Constant dataType="double">7.560645723073822E-16</Constant>
					</Apply>
					<Constant dataType="double">-0.17635459440886567</Constant>
				</Apply>
				<Apply function="*">
					<Apply function="-">
						<FieldRef field="x15"/>
						<Constant dataType="double">5.833831576445851E-17</Constant>
					</Apply>
					<Constant dataType="double">-0.011199275024316809</Constant>
				</Apply>
				<Apply function="*">
					<FieldRef field="x16"/>
					<Constant dataType="double">0.0</Constant>
				</Apply>
				<Apply function="*">
					<Apply function="-">
						<FieldRef field="x17"/>
						<Constant dataType="double">-1.489870833369248E-16</Constant>
					</Apply>
					<Constant dataType="double">-0.025583137078940155</Constant>
				</Apply>
				<Apply function="*">
					<Apply function="-">
						<FieldRef field="x18"/>
						<Constant dataType="double">4.9569618148785285E-16</Constant>
					</Apply>
					<Constant dataType="double">-0.022500808174253362</Constant>
				</Apply>
				<Apply function="*">
					<Apply function="-">
						<FieldRef field="x19"/>
						<Constant dataType="double">-2.391197811930132E-16</Constant>
					</Apply>
					<Constant dataType="double">0.17406949363618243</Constant>
				</Apply>
				<Apply function="*">
					<Apply function="-">
						<FieldRef field="x20"/>
						<Constant dataType="double">-9.671258673990665E-17</Constant>
					</Apply>
					<Constant dataType="double">0.01662457602943312</Constant>
				</Apply>
				<Apply function="*">
					<Apply function="-">
						<FieldRef field="x21"/>
						<Constant dataType="double">-3.004423261869613E-16</Constant>
					</Apply>
					<Constant dataType="double">-0.018120344539076072</Constant>
				</Apply>
				<Apply function="*">
					<Apply function="-">
						<FieldRef field="x22"/>
						<Constant dataType="double">-7.207025778286182E-16</Constant>
					</Apply>
					<Constant dataType="double">-0.09710415068385678</Constant>
				</Apply>
				<Apply function="*">
					<Apply function="-">
						<FieldRef field="x23"/>
						<Constant dataType="double">-4.552071465659431E-17</Constant>
					</Apply>
					<Constant dataType="double">-0.07495135205887261</Constant>
				</Apply>
				<Apply function="*">
					<Apply function="-">
						<FieldRef field="x24"/>
						<Constant dataType="double">-6.634861527519378E-16</Constant>
					</Apply>
					<Constant dataType="double">-0.16432034063312176</Constant>
				</Apply>
				<Apply function="*">
					<Apply function="-">
						<FieldRef field="x25"/>
						<Constant dataType="double">-6.515941114614904E-17</Constant>
					</Apply>
					<Constant dataType="double">0.1335671781105991</Constant>
				</Apply>
				<Apply function="*">
					<Apply function="-">
						<FieldRef field="x26"/>
						<Constant dataType="double">1.3906956965696686E-16</Constant>
					</Apply>
					<Constant dataType="double">-0.10723932834153131</Constant>
				</Apply>
				<Apply function="*">
					<Apply function="-">
						<FieldRef field="x27"/>
						<Constant dataType="double">1.1811265160927292E-16</Constant>
					</Apply>
					<Constant dataType="double">-0.1007085583525454</Constant>
				</Apply>
				<Apply function="*">
					<Apply function="-">
						<FieldRef field="x28"/>
						<Constant dataType="double">-1.8654798356373385E-16</Constant>
					</Apply>
					<Constant dataType="double">0.1199289136777417</Constant>
				</Apply>
				<Apply function="*">
					<Apply function="-">
						<FieldRef field="x29"/>
						<Constant dataType="double">-3.996174629865408E-16</Constant>
					</Apply>
					<Constant dataType="double">-0.10736294592704053</Constant>
				</Apply>
				<Apply function="*">
					<Apply function="-">
						<FieldRef field="x30"/>
						<Constant dataType="double">-1.02316430725358E-17</Constant>
					</Apply>
					<Constant dataType="double">0.004672289617444577</Constant>
				</Apply>
				<Apply function="*">
					<Apply function="-">
						<FieldRef field="x31"/>
						<Constant dataType="double">-1.915291782174684E-16</Constant>
					</Apply>
					<Constant dataType="double">-0.004523031839809547</Constant>
				</Apply>
				<Apply function="*">
					<Apply function="-">
						<FieldRef field="x32"/>
						<Constant dataType="double">-2.4748908572383743E-17</Constant>
					</Apply>
					<Constant dataType="double">-0.161258852102631</Constant>
				</Apply>
				<Apply function="*">
					<Apply function="-">
						<FieldRef field="x33"/>
						<Constant dataType="double">8.874604096599473E-16</Constant>
					</Apply>
					<Constant dataType="double">-0.0028918140860330916</Constant>
				</Apply>
				<Apply function="*">
					<Apply function="-">
						<FieldRef field="x34"/>
						<Constant dataType="double">-5.796136049336509E-16</Constant>
					</Apply>
					<Constant dataType="double">-0.06855780527182212</Constant>
				</Apply>
				<Apply function="*">
					<Apply function="-">
						<FieldRef field="x35"/>
						<Constant dataType="double">3.278164589687457E-17</Constant>
					</Apply>
					<Constant dataType="double">0.1090973945593859</Constant>
				</Apply>
				<Apply function="*">
					<FieldRef field="x36"/>
					<Constant dataType="double">0.0</Constant>
				</Apply>
				<Apply function="*">
					<Apply function="-">
						<FieldRef field="x37"/>
						<Constant dataType="double">-4.2979632248777026E-16</Constant>
					</Apply>
					<Constant dataType="double">-0.022200604810360094</Constant>
				</Apply>
				<Apply function="*">
					<Apply function="-">
						<FieldRef field="x38"/>
						<Constant dataType="double">2.369881888862349E-16</Constant>
					</Apply>
					<Constant dataType="double">-0.10694869458628294</Constant>
				</Apply>
				<Apply function="*">
					<Apply function="-">
						<FieldRef field="x39"/>
						<Constant dataType="double">-2.372125670237905E-16</Constant>
					</Apply>
					<Constant dataType="double">-0.015389268774903542</Constant>
				</Apply>
				<Apply function="*">
					<Apply function="-">
						<FieldRef field="x40"/>
						<Constant dataType="double">-4.626677196396671E-17</Constant>
					</Apply>
					<Constant dataType="double">-0.03356203423127474</Constant>
				</Apply>
				<Apply function="*">
					<Apply function="-">
						<FieldRef field="x41"/>
						<Constant dataType="double">8.490468725104269E-17</Constant>
					</Apply>
					<Constant dataType="double">0.013325445659004027</Constant>
				</Apply>
				<Apply function="*">
					<Apply function="-">
						<FieldRef field="x42"/>
						<Constant dataType="double">-7.601931300384054E-17</Constant>
					</Apply>
					<Constant dataType="double">-0.03791715694062547</Constant>
				</Apply>
				<Apply function="*">
					<Apply function="-">
						<FieldRef field="x43"/>
						<Constant dataType="double">-6.874048622153657E-16</Constant>
					</Apply>
					<Constant dataType="double">-0.14853849002754008</Constant>
				</Apply>
				<Apply function="*">
					<Apply function="-">
						<FieldRef field="x44"/>
						<Constant dataType="double">3.0192322189482836E-16</Constant>
					</Apply>
					<Constant dataType="double">-0.010065307895935342</Constant>
				</Apply>
				<Apply function="*">
					<Apply function="-">
						<FieldRef field="x45"/>
						<Constant dataType="double">1.4912171021945818E-16</Constant>
					</Apply>
					<Constant dataType="double">0.14918388848333075</Constant>
				</Apply>
				<Apply function="*">
					<Apply function="-">
						<FieldRef field="x46"/>
						<Constant dataType="double">-6.538378928370466E-17</Constant>
					</Apply>
					<Constant dataType="double">0.09715047082085737</Constant>
				</Apply>
				<Apply function="*">
					<Apply function="-">
						<FieldRef field="x47"/>
						<Constant dataType="double">7.609111400785834E-16</Constant>
					</Apply>
					<Constant dataType="double">0.12417436954741785</Constant>
				</Apply>
				<Apply function="*">
					<Apply function="-">
						<FieldRef field="x48"/>
						<Constant dataType="double">-1.506026059273252E-16</Constant>
					</Apply>
					<Constant dataType="double">-0.19088190764984647</Constant>
				</Apply>
				<Apply function="*">
					<Apply function="-">
						<FieldRef field="x49"/>
						<Constant dataType="double">8.260481134109769E-17</Constant>
					</Apply>
					<Constant dataType="double">-0.04538004293057108</Constant>
				</Apply>
				<Apply function="*">
					<Apply function="-">
						<FieldRef field="x50"/>
						<Constant dataType="double">1.1434309889833867E-16</Constant>
					</Apply>
					<Constant dataType="double">-0.019687473088835502</Constant>
				</Apply>
				<Apply function="*">
					<Apply function="-">
						<FieldRef field="x51"/>
						<Constant dataType="double">1.5257713353781455E-17</Constant>
					</Apply>
					<Constant dataType="double">0.011683911217496528</Constant>
				</Apply>
				<Apply function="*">
					<Apply function="-">
						<FieldRef field="x52"/>
						<Constant dataType="double">1.0394990356676284E-15</Constant>
					</Apply>
					<Constant dataType="double">0.03619903194629494</Constant>
				</Apply>
				<Apply function="*">
					<Apply function="-">
						<FieldRef field="x53"/>
						<Constant dataType="double">-5.026967793795879E-16</Constant>
					</Apply>
					<Constant dataType="double">0.04292232727343304</Constant>
				</Apply>
				<Apply function="*">
					<Apply function="-">
						<FieldRef field="x54"/>
						<Constant dataType="double">-2.0066136841598171E-16</Constant>
					</Apply>
					<Constant dataType="double">0.08962730511147128</Constant>
				</Apply>
				<Apply function="*">
					<Apply function="-">
						<FieldRef field="x55"/>
						<Constant dataType="double">7.417043715038233E-16</Constant>
					</Apply>
					<Constant dataType="double">-0.15860690128782992</Constant>
				</Apply>
				<Apply function="*">
					<Apply function="-">
						<FieldRef field="x56"/>
						<Constant dataType="double">3.210402392145663E-16</Constant>
					</Apply>
					<Constant dataType="double">-0.009519971670792072</Constant>
				</Apply>
				<Apply function="*">
					<Apply function="-">
						<FieldRef field="x57"/>
						<Constant dataType="double">1.3067782731238707E-16</Constant>
					</Apply>
					<Constant dataType="double">-0.05550479404184999</Constant>
				</Apply>
				<Apply function="*">
					<Apply function="-">
						<FieldRef field="x58"/>
						<Constant dataType="double">-9.271304643797791E-17</Constant>
					</Apply>
					<Constant dataType="double">-0.1662003496485443</Constant>
				</Apply>
				<Apply function="*">
					<Apply function="-">
						<FieldRef field="x59"/>
						<Constant dataType="double">4.440443342225515E-16</Constant>
					</Apply>
					<Constant dataType="double">0.09067219072821046</Constant>
				</Apply>
				<Apply function="*">
					<Apply function="-">
						<FieldRef field="x60"/>
						<Constant dataType="double">-1.0359538610942498E-16</Constant>
					</Apply>
					<Constant dataType="double">0.01874621590992834</Constant>
				</Apply>
				<Apply function="*">
					<Apply function="-">
						<FieldRef field="x61"/>
						<Constant dataType="double">1.117403125026936E-16</Constant>
					</Apply>
					<Constant dataType="double">0.02796008684883447</Constant>
				</Apply>
				<Apply function="*">
					<Apply function="-">
						<FieldRef field="x62"/>
						<Constant dataType="double">-3.936490045275616E-16</Constant>
					</Apply>
					<Constant dataType="double">0.03035559113115028</Constant>
				</Apply>
				<Apply function="*">
					<Apply function="-">
						<FieldRef field="x63"/>
						<Constant dataType="double">-2.395236618406133E-16</Constant>
					</Apply>
					<Constant dataType="double">0.0029380453488470144</Constant>
				</Apply>
				<Apply function="*">
					<Apply function="-">
						<FieldRef field="x64"/>
						<Constant dataType="double">2.7979953753184525E-16</Constant>
					</Apply>
					<Constant dataType="double">0.09839857626196272</Constant>
				</Apply>
				<Apply function="*">
					<Apply function="-">
						<FieldRef field="x65"/>
						<Constant dataType="double">2.4905973268672673E-16</Constant>
					</Apply>
					<Constant dataType="double">0.1241650583989544</Constant>
				</Apply>
				<Apply function="*">
					<Apply function="-">
						<FieldRef field="x66"/>
						<Constant dataType="double">8.10453832850862E-17</Constant>
					</Apply>
					<Constant dataType="double">-0.010460957119078977</Constant>
				</Apply>
				<Apply function="*">
					<Apply function="-">
						<FieldRef field="x67"/>
						<Constant dataType="double">-3.288037227739904E-16</Constant>
					</Apply>
					<Constant dataType="double">0.03843806166685808</Constant>
				</Apply>
				<Apply function="*">
					<Apply function="-">
						<FieldRef field="x68"/>
						<Constant dataType="double">-2.288376530395274E-16</Constant>
					</Apply>
					<Constant dataType="double">0.13795590391895407</Constant>
				</Apply>
				<Apply function="*">
					<Apply function="-">
						<FieldRef field="x69"/>
						<Constant dataType="double">6.024104237093008E-16</Constant>
					</Apply>
					<Constant dataType="double">-0.12041789266347754</Constant>
				</Apply>
				<Apply function="*">
					<Apply function="-">
						<FieldRef field="x70"/>
						<Constant dataType="double">2.205637092171643E-16</Constant>
					</Apply>
					<Constant dataType="double">-0.054772856099452503</Constant>
				</Apply>
				<Apply function="*">
					<Apply function="-">
						<FieldRef field="x71"/>
						<Constant dataType="double">1.768099723938204E-16</Constant>
					</Apply>
					<Constant dataType="double">0.02031994941603593</Constant>
				</Apply>
				<Apply function="*">
					<Apply function="-">
						<FieldRef field="x72"/>
						<Constant dataType="double">4.665073905185874E-16</Constant>
					</Apply>
					<Constant dataType="double">-0.022906163639235266</Constant>
				</Apply>
				<Apply function="*">
					<Apply function="-">
						<FieldRef field="x73"/>
						<Constant dataType="double">-1.1775364658918393E-16</Constant>
					</Apply>
					<Constant dataType="double">-0.010527425085799343</Constant>
				</Apply>
				<Apply function="*">
					<Apply function="-">
						<FieldRef field="x74"/>
						<Constant dataType="double">-2.19352067274364E-16</Constant>
					</Apply>
					<Constant dataType="double">0.06445815124696135</Constant>
				</Apply>
				<Apply function="*">
					<Apply function="-">
						<FieldRef field="x75"/>
						<Constant dataType="double">4.6401398846500073E-17</Constant>
					</Apply>
					<Constant dataType="double">0.14153873740401132</Constant>
				</Apply>
				<Apply function="*">
					<Apply function="-">
						<FieldRef field="x76"/>
						<Constant dataType="double">-2.807419257095788E-16</Constant>
					</Apply>
					<Constant dataType="double">-0.05961623157918612</Constant>
				</Apply>
				<Apply function="*">
					<Apply function="-">
						<FieldRef field="x77"/>
						<Constant dataType="double">-5.570411642955565E-16</Constant>
					</Apply>
					<Constant dataType="double">0.16134600343942107</Constant>
				</Apply>
				<Apply function="*">
					<Apply function="-">
						<FieldRef field="x78"/>
						<Constant dataType="double">5.089793672311449E-16</Constant>
					</Apply>
					<Constant dataType="double">-0.058871331324728826</Constant>
				</Apply>
				<Apply function="*">
					<Apply function="-">
						<FieldRef field="x79"/>
						<Constant dataType="double">-7.974399008726367E-17</Constant>
					</Apply>
					<Constant dataType="double">0.05023632363253232</Constant>
				</Apply>
				<Apply function="*">
					<Apply function="-">
						<FieldRef field="x80"/>
						<Constant dataType="double">-3.3432342495785836E-17</Constant>
					</Apply>
					<Constant dataType="double">0.012110651126764425</Constant>
				</Apply>
				<Apply function="*">
					<Apply function="-">
						<FieldRef field="x81"/>
						<Constant dataType="double">-7.646806927895176E-17</Constant>
					</Apply>
					<Constant dataType="double">0.014608447256000684</Constant>
				</Apply>
				<Apply function="*">
					<Apply function="-">
						<FieldRef field="x82"/>
						<Constant dataType="double">-1.0386912743724281E-15</Constant>
					</Apply>
					<Constant dataType="double">0.031760832168325426</Constant>
				</Apply>
				<Apply function="*">
					<Apply function="-">
						<FieldRef field="x83"/>
						<Constant dataType="double">6.349901292823753E-17</Constant>
					</Apply>
					<Constant dataType="double">-0.13809756813516627</Constant>
				</Apply>
				<Apply function="*">
					<Apply function="-">
						<FieldRef field="x84"/>
						<Constant dataType="double">1.453072818810128E-16</Constant>
					</Apply>
					<Constant dataType="double">0.14470616154011473</Constant>
				</Apply>
				<Apply function="*">
					<Apply function="-">
						<FieldRef field="x85"/>
						<Constant dataType="double">-8.167364207024192E-17</Constant>
					</Apply>
					<Constant dataType="double">0.05995460670014474</Constant>
				</Apply>
				<Apply function="*">
					<Apply function="-">
						<FieldRef field="x86"/>
						<Constant dataType="double">-3.3916999272905957E-16</Constant>
					</Apply>
					<Constant dataType="double">-0.09041297483059621</Constant>
				</Apply>
				<Apply function="*">
					<Apply function="-">
						<FieldRef field="x87"/>
						<Constant dataType="double">6.946747138721674E-17</Constant>
					</Apply>
					<Constant dataType="double">0.007100460785400153</Constant>
				</Apply>
				<Apply function="*">
					<Apply function="-">
						<FieldRef field="x88"/>
						<Constant dataType="double">-2.6557396361081957E-16</Constant>
					</Apply>
					<Constant dataType="double">0.007465178455448296</Constant>
				</Apply>
				<Apply function="*">
					<Apply function="-">
						<FieldRef field="x89"/>
						<Constant dataType="double">7.129390942691941E-16</Constant>
					</Apply>
					<Constant dataType="double">0.09363118818461495</Constant>
				</Apply>
				<Apply function="*">
					<Apply function="-">
						<FieldRef field="x90"/>
						<Constant dataType="double">-2.443477917980589E-17</Constant>
					</Apply>
					<Constant dataType="double">-0.021001947922293134</Constant>
				</Apply>
				<Apply function="*">
					<Apply function="-">
						<FieldRef field="x91"/>
						<Constant dataType="double">-2.6611247114095304E-16</Constant>
					</Apply>
					<Constant dataType="double">0.04590970601710688</Constant>
				</Apply>
				<Apply function="*">
					<Apply function="-">
						<FieldRef field="x92"/>
						<Constant dataType="double">-6.931524484451887E-16</Constant>
					</Apply>
					<Constant dataType="double">-0.08500454128976265</Constant>
				</Apply>
				<Apply function="*">
					<Apply function="-">
						<FieldRef field="x93"/>
						<Constant dataType="double">-2.4852122515659325E-16</Constant>
					</Apply>
					<Constant dataType="double">-0.11528600877637399</Constant>
				</Apply>
				<Apply function="*">
					<FieldRef field="x94"/>
					<Constant dataType="double">0.0</Constant>
				</Apply>
				<Apply function="*">
					<Apply function="-">
						<FieldRef field="x95"/>
						<Constant dataType="double">-1.645589260832841E-16</Constant>
					</Apply>
					<Constant dataType="double">0.13271891556695614</Constant>
				</Apply>
				<Apply function="*">
					<Apply function="-">
						<FieldRef field="x96"/>
						<Constant dataType="double">2.952816290231823E-16</Constant>
					</Apply>
					<Constant dataType="double">0.005250535456269835</Constant>
				</Apply>
				<Apply function="*">
					<Apply function="-">
						<FieldRef field="x97"/>
						<Constant dataType="double">-7.386528288330669E-17</Constant>
					</Apply>
					<Constant dataType="double">0.11964049122953846</Constant>
				</Apply>
				<Apply function="*">
					<Apply function="-">
						<FieldRef field="x98"/>
						<Constant dataType="double">-1.0940677987211527E-16</Constant>
					</Apply>
					<Constant dataType="double">-0.044316089543029936</Constant>
				</Apply>
				<Apply function="*">
					<Apply function="-">
						<FieldRef field="x99"/>
						<Constant dataType="double">3.969698009633846E-16</Constant>
					</Apply>
					<Constant dataType="double">-0.10554815011334036</Constant>
				</Apply>
				<Apply function="*">
					<Apply function="-">
						<FieldRef field="x100"/>
						<Constant dataType="double">2.287759490516996E-16</Constant>
					</Apply>
					<Constant dataType="double">0.15796238079791994</Constant>
				</Apply>
				<Apply function="*">
					<Apply function="-">
						<FieldRef field="x101"/>
						<Constant dataType="double">-1.6954012073701866E-16</Constant>
					</Apply>
					<Constant dataType="double">-0.14408447024354218</Constant>
				</Apply>
				<Apply function="*">
					<Apply function="-">
						<FieldRef field="x102"/>
						<Constant dataType="double">1.6110350276492772E-16</Constant>
					</Apply>
					<Constant dataType="double">0.096721554130171</Constant>
				</Apply>
				<Apply function="*">
					<Apply function="-">
						<FieldRef field="x103"/>
						<Constant dataType="double">-2.1495425577827405E-17</Constant>
					</Apply>
					<Constant dataType="double">0.02928301914994251</Constant>
				</Apply>
				<Apply function="*">
					<Apply function="-">
						<FieldRef field="x104"/>
						<Constant dataType="double">1.7663046988377593E-16</Constant>
					</Apply>
					<Constant dataType="double">-0.06358345884975433</Constant>
				</Apply>
				<Apply function="*">
					<Apply function="-">
						<FieldRef field="x105"/>
						<Constant dataType="double">4.1020811107916557E-16</Constant>
					</Apply>
					<Constant dataType="double">0.010281704237849867</Constant>
				</Apply>
				<Apply function="*">
					<Apply function="-">
						<FieldRef field="x106"/>
						<Constant dataType="double">-7.183241695705287E-16</Constant>
					</Apply>
					<Constant dataType="double">0.007050192022437153</Constant>
				</Apply>
				<Apply function="*">
					<Apply function="-">
						<FieldRef field="x107"/>
						<Constant dataType="double">-4.2676721763076954E-17</Constant>
					</Apply>
					<Constant dataType="double">0.036631623265585896</Constant>
				</Apply>
				<Apply function="*">
					<Apply function="-">
						<FieldRef field="x108"/>
						<Constant dataType="double">2.9887167922407203E-17</Constant>
					</Apply>
					<Constant dataType="double">0.04946934287468172</Constant>
				</Apply>
				<Apply function="*">
					<Apply function="-">
						<FieldRef field="x109"/>
						<Constant dataType="double">-2.605478933295739E-16</Constant>
					</Apply>
					<Constant dataType="double">0.13392093484168444</Constant>
				</Apply>
				<Apply function="*">
					<Apply function="-">
						<FieldRef field="x110"/>
						<Constant dataType="double">9.807119636280586E-16</Constant>
					</Apply>
					<Constant dataType="double">0.03736727469385505</Constant>
				</Apply>
				<Apply function="*">
					<FieldRef field="x111"/>
					<Constant dataType="double">0.0</Constant>
				</Apply>
				<Apply function="*">
					<Apply function="-">
						<FieldRef field="x112"/>
						<Constant dataType="double">-7.180100401779508E-19</Constant>
					</Apply>
					<Constant dataType="double">-1.3763402591891204E-4</Constant>
				</Apply>
				<Apply function="*">
					<Apply function="-">
						<FieldRef field="x113"/>
						<Constant dataType="double">4.7478413906767E-17</Constant>
					</Apply>
					<Constant dataType="double">0.0913098975450241</Constant>
				</Apply>
				<Apply function="*">
					<Apply function="-">
						<FieldRef field="x114"/>
						<Constant dataType="double">3.6636462300079943E-16</Constant>
					</Apply>
					<Constant dataType="double">0.008460513986163388</Constant>
				</Apply>
				<Apply function="*">
					<Apply function="-">
						<FieldRef field="x115"/>
						<Constant dataType="double">8.907812060957703E-17</Constant>
					</Apply>
					<Constant dataType="double">0.06880987392211818</Constant>
				</Apply>
				<Apply function="*">
					<Apply function="-">
						<FieldRef field="x116"/>
						<Constant dataType="double">-3.54427706082841E-16</Constant>
					</Apply>
					<Constant dataType="double">0.1933083129224457</Constant>
				</Apply>
				<Apply function="*">
					<Apply function="-">
						<FieldRef field="x117"/>
						<Constant dataType="double">-1.8264380397026625E-17</Constant>
					</Apply>
					<Constant dataType="double">0.14791122150313277</Constant>
				</Apply>
				<Apply function="*">
					<Apply function="-">
						<FieldRef field="x118"/>
						<Constant dataType="double">7.575005923877382E-17</Constant>
					</Apply>
					<Constant dataType="double">-0.06261485102426606</Constant>
				</Apply>
				<Apply function="*">
					<Apply function="-">
						<FieldRef field="x119"/>
						<Constant dataType="double">-1.624497715902614E-16</Constant>
					</Apply>
					<Constant dataType="double">0.10338941497483749</Constant>
				</Apply>
				<Apply function="*">
					<Apply function="-">
						<FieldRef field="x120"/>
						<Constant dataType="double">2.5646421122606183E-16</Constant>
					</Apply>
					<Constant dataType="double">0.10046269277743704</Constant>
				</Apply>
				<Apply function="*">
					<Apply function="-">
						<FieldRef field="x121"/>
						<Constant dataType="double">-2.443477917980589E-17</Constant>
					</Apply>
					<Constant dataType="double">-0.02100194792229315</Constant>
				</Apply>
				<Apply function="*">
					<Apply function="-">
						<FieldRef field="x122"/>
						<Constant dataType="double">-7.110991935412381E-16</Constant>
					</Apply>
					<Constant dataType="double">-0.10398034276990867</Constant>
				</Apply>
				<Apply function="*">
					<FieldRef field="x123"/>
					<Constant dataType="double">0.0</Constant>
				</Apply>
				<Apply function="*">
					<Apply function="-">
						<FieldRef field="x124"/>
						<Constant dataType="double">4.196768684840123E-16</Constant>
					</Apply>
					<Constant dataType="double">0.1517532842591517</Constant>
				</Apply>
				<Apply function="*">
					<Apply function="-">
						<FieldRef field="x125"/>
						<Constant dataType="double">-1.5167962098759213E-16</Constant>
					</Apply>
					<Constant dataType="double">-0.041274722687501916</Constant>
				</Apply>
				<Apply function="*">
					<Apply function="-">
						<FieldRef field="x126"/>
						<Constant dataType="double">-3.274125783211456E-16</Constant>
					</Apply>
					<Constant dataType="double">-0.04243168191926599</Constant>
				</Apply>
				<Apply function="*">
					<Apply function="-">
						<FieldRef field="x127"/>
						<Constant dataType="double">-2.304812228971222E-16</Constant>
					</Apply>
					<Constant dataType="double">-0.08275114694762965</Constant>
				</Apply>
			</Apply>
		</DerivedField>
	</TransformationDictionary>
	<RegressionModel functionName="classification" normalizationMethod="logit">
		<MiningSchema>
			<MiningField name="y" usageType="target"/>
			<MiningField name="x1"/>
			<MiningField name="x2"/>
			<MiningField name="x3"/>
			<MiningField name="x4"/>
			<MiningField name="x5"/>
			<MiningField name="x6"/>
			<MiningField name="x7"/>
			<MiningField name="x8"/>
			<MiningField name="x9"/>
			<MiningField name="x10"/>
			<MiningField name="x11"/>
			<MiningField name="x12"/>
			<MiningField name="x13"/>
			<MiningField name="x14"/>
			<MiningField name="x15"/>
			<MiningField name="x16"/>
			<MiningField name="x17"/>
			<MiningField name="x18"/>
			<MiningField name="x19"/>
			<MiningField name="x20"/>
			<MiningField name="x21"/>
			<MiningField name="x22"/>
			<MiningField name="x23"/>
			<MiningField name="x24"/>
			<MiningField name="x25"/>
			<MiningField name="x26"/>
			<MiningField name="x27"/>
			<MiningField name="x28"/>
			<MiningField name="x29"/>
			<MiningField name="x30"/>
			<MiningField name="x31"/>
			<MiningField name="x32"/>
			<MiningField name="x33"/>
			<MiningField name="x34"/>
			<MiningField name="x35"/>
			<MiningField name="x36"/>
			<MiningField name="x37"/>
			<MiningField name="x38"/>
			<MiningField name="x39"/>
			<MiningField name="x40"/>
			<MiningField name="x41"/>
			<MiningField name="x42"/>
			<MiningField name="x43"/>
			<MiningField name="x44"/>
			<MiningField name="x45"/>
			<MiningField name="x46"/>
			<MiningField name="x47"/>
			<MiningField name="x48"/>
			<MiningField name="x49"/>
			<MiningField name="x50"/>
			<MiningField name="x51"/>
			<MiningField name="x52"/>
			<MiningField name="x53"/>
			<MiningField name="x54"/>
			<MiningField name="x55"/>
			<MiningField name="x56"/>
			<MiningField name="x57"/>
			<MiningField name="x58"/>
			<MiningField name="x59"/>
			<MiningField name="x60"/>
			<MiningField name="x61"/>
			<MiningField name="x62"/>
			<MiningField name="x63"/>
			<MiningField name="x64"/>
			<MiningField name="x65"/>
			<MiningField name="x66"/>
			<MiningField name="x67"/>
			<MiningField name="x68"/>
			<MiningField name="x69"/>
			<MiningField name="x70"/>
			<MiningField name="x71"/>
			<MiningField name="x72"/>
			<MiningField name="x73"/>
			<MiningField name="x74"/>
			<MiningField name="x75"/>
			<MiningField name="x76"/>
			<MiningField name="x77"/>
			<MiningField name="x78"/>
			<MiningField name="x79"/>
			<MiningField name="x80"/>
			<MiningField name="x81"/>
			<MiningField name="x82"/>
			<MiningField name="x83"/>
			<MiningField name="x84"/>
			<MiningField name="x85"/>
			<MiningField name="x86"/>
			<MiningField name="x87"/>
			<MiningField name="x88"/>
			<MiningField name="x89"/>
			<MiningField name="x90"/>
			<MiningField name="x91"/>
			<MiningField name="x92"/>
			<MiningField name="x93"/>
			<MiningField name="x94"/>
			<MiningField name="x95"/>
			<MiningField name="x96"/>
			<MiningField name="x97"/>
			<MiningField name="x98"/>
			<MiningField name="x99"/>
			<MiningField name="x100"/>
			<MiningField name="x101"/>
			<MiningField name="x102"/>
			<MiningField name="x103"/>
			<MiningField name="x104"/>
			<MiningField name="x105"/>
			<MiningField name="x106"/>
			<MiningField name="x107"/>
			<MiningField name="x108"/>
			<MiningField name="x109"/>
			<MiningField name="x110"/>
			<MiningField name="x111"/>
			<MiningField name="x112"/>
			<MiningField name="x113"/>
			<MiningField name="x114"/>
			<MiningField name="x115"/>
			<MiningField name="x116"/>
			<MiningField name="x117"/>
			<MiningField name="x118"/>
			<MiningField name="x119"/>
			<MiningField name="x120"/>
			<MiningField name="x121"/>
			<MiningField name="x122"/>
			<MiningField name="x123"/>
			<MiningField name="x124"/>
			<MiningField name="x125"/>
			<MiningField name="x126"/>
			<MiningField name="x127"/>
		</MiningSchema>
		<Output>
			<OutputField name="probability(1)" optype="continuous" dataType="double" feature="probability" value="1"/>
			<OutputField name="probability(2)" optype="continuous" dataType="double" feature="probability" value="2"/>
			<OutputField name="probability(3)" optype="continuous" dataType="double" feature="probability" value="3"/>
			<OutputField name="probability(4)" optype="continuous" dataType="double" feature="probability" value="4"/>
			<OutputField name="probability(5)" optype="continuous" dataType="double" feature="probability" value="5"/>
			<OutputField name="probability(6)" optype="continuous" dataType="double" feature="probability" value="6"/>
			<OutputField name="probability(7)" optype="continuous" dataType="double" feature="probability" value="7"/>
			<OutputField name="probability(8)" optype="continuous" dataType="double" feature="probability" value="8"/>
			<OutputField name="probability(9)" optype="continuous" dataType="double" feature="probability" value="9"/>
			<OutputField name="probability(10)" optype="continuous" dataType="double" feature="probability" value="10"/>
			<OutputField name="probability(11)" optype="continuous" dataType="double" feature="probability" value="11"/>
			<OutputField name="probability(12)" optype="continuous" dataType="double" feature="probability" value="12"/>
			<OutputField name="probability(13)" optype="continuous" dataType="double" feature="probability" value="13"/>
			<OutputField name="probability(14)" optype="continuous" dataType="double" feature="probability" value="14"/>
			<OutputField name="probability(15)" optype="continuous" dataType="double" feature="probability" value="15"/>
			<OutputField name="probability(16)" optype="continuous" dataType="double" feature="probability" value="16"/>
			<OutputField name="probability(17)" optype="continuous" dataType="double" feature="probability" value="17"/>
		</Output>
		<RegressionTable intercept="-1.4032679843231282" targetCategory="1">
			<NumericPredictor name="pca@1[1]" coefficient="0.1862762035185781"/>
			<NumericPredictor name="pca@1[2]" coefficient="-0.2470160155607119"/>
		</RegressionTable>
		<RegressionTable intercept="-2.2686057052933624" targetCategory="2">
			<NumericPredictor name="pca@1[1]" coefficient="0.054754284220659075"/>
			<NumericPredictor name="pca@1[2]" coefficient="-0.08283423437404447"/>
		</RegressionTable>
		<RegressionTable intercept="-1.6691893152255852" targetCategory="3">
			<NumericPredictor name="pca@1[1]" coefficient="0.08976427183886179"/>
			<NumericPredictor name="pca@1[2]" coefficient="-0.015705955034453586"/>
		</RegressionTable>
		<RegressionTable intercept="-2.2876476937390744" targetCategory="4">
			<NumericPredictor name="pca@1[1]" coefficient="0.025062169508106295"/>
			<NumericPredictor name="pca@1[2]" coefficient="-0.01702887351081902"/>
		</RegressionTable>
		<RegressionTable intercept="-2.6488772165321293" targetCategory="5">
			<NumericPredictor name="pca@1[1]" coefficient="0.02744884925804813"/>
			<NumericPredictor name="pca@1[2]" coefficient="0.009006520231315297"/>
		</RegressionTable>
		<RegressionTable intercept="-2.8245287966617774" targetCategory="6">
			<NumericPredictor name="pca@1[1]" coefficient="-0.022164219135448318"/>
			<NumericPredictor name="pca@1[2]" coefficient="-0.02517612759167285"/>
		</RegressionTable>
		<RegressionTable intercept="-3.0924975690367673" targetCategory="7">
			<NumericPredictor name="pca@1[1]" coefficient="-0.13243715721941998"/>
			<NumericPredictor name="pca@1[2]" coefficient="0.06817071130685197"/>
		</RegressionTable>
		<RegressionTable intercept="-3.149668747602025" targetCategory="8">
			<NumericPredictor name="pca@1[1]" coefficient="-0.08377340314565543"/>
			<NumericPredictor name="pca@1[2]" coefficient="0.11806860686812388"/>
		</RegressionTable>
		<RegressionTable intercept="-3.668395108952033" targetCategory="9">
			<NumericPredictor name="pca@1[1]" coefficient="-0.26840537051053576"/>
			<NumericPredictor name="pca@1[2]" coefficient="0.1933013342297209"/>
		</RegressionTable>
		<RegressionTable intercept="-3.0938586315391845" targetCategory="10">
			<NumericPredictor name="pca@1[1]" coefficient="-0.11811499757822716"/>
			<NumericPredictor name="pca@1[2]" coefficient="0.16068023194542666"/>
		</RegressionTable>
		<RegressionTable intercept="-3.319116549025508" targetCategory="11">
			<NumericPredictor name="pca@1[1]" coefficient="-0.16579880122950566"/>
			<NumericPredictor name="pca@1[2]" coefficient="0.17099113689376552"/>
		</RegressionTable>
		<RegressionTable intercept="-3.298390298343001" targetCategory="12">
			<NumericPredictor name="pca@1[1]" coefficient="-0.29283028762640306"/>
			<NumericPredictor name="pca@1[2]" coefficient="0.26472450992062185"/>
		</RegressionTable>
		<RegressionTable intercept="-3.4253262188496154" targetCategory="13">
			<NumericPredictor name="pca@1[1]" coefficient="-0.3031331275416503"/>
			<NumericPredictor name="pca@1[2]" coefficient="0.31019601181719014"/>
		</RegressionTable>
		<RegressionTable intercept="-3.6532921652646744" targetCategory="14">
			<NumericPredictor name="pca@1[1]" coefficient="-0.33773935990094794"/>
			<NumericPredictor name="pca@1[2]" coefficient="0.24507438011878446"/>
		</RegressionTable>
		<RegressionTable intercept="-4.746460426690289" targetCategory="15">
			<NumericPredictor name="pca@1[1]" coefficient="-0.1908632647729663"/>
			<NumericPredictor name="pca@1[2]" coefficient="0.0626855374619542"/>
		</RegressionTable>
		<RegressionTable intercept="-5.045860801788402" targetCategory="16">
			<NumericPredictor name="pca@1[1]" coefficient="-0.003514406109877504"/>
			<NumericPredictor name="pca@1[2]" coefficient="-0.08670963001696352"/>
		</RegressionTable>
		<RegressionTable intercept="-5.368385681855071" targetCategory="17">
			<NumericPredictor name="pca@1[1]" coefficient="-0.21306880491113983"/>
			<NumericPredictor name="pca@1[2]" coefficient="-0.026218225149878094"/>
		</RegressionTable>
	</RegressionModel>
</PMML>
